digraph Tree {
node [shape=box, style="filled, rounded", color="black", fontname=helvetica] ;
edge [fontname=helvetica] ;
0 [label="sepal length (cm) <= 5.45\ngini = 0.66\nsamples = 98\nvalue = [48, 61, 41]\nclass = versicolor", fillcolor="#e6fcef"] ;
1 [label="petal width (cm) <= 0.8\ngini = 0.28\nsamples = 35\nvalue = [45, 9, 0]\nclass = setosa", fillcolor="#ea9a61"] ;
0 -> 1 [labeldistance=2.5, labelangle=45, headlabel="True"] ;
2 [label="gini = 0.0\nsamples = 29\nvalue = [45, 0, 0]\nclass = setosa", fillcolor="#e58139"] ;
1 -> 2 ;
3 [label="gini = 0.0\nsamples = 6\nvalue = [0, 9, 0]\nclass = versicolor", fillcolor="#39e581"] ;
1 -> 3 ;
4 [label="petal width (cm) <= 1.75\ngini = 0.52\nsamples = 63\nvalue = [3, 52, 41]\nclass = versicolor", fillcolor="#d7fae6"] ;
0 -> 4 [labeldistance=2.5, labelangle=-45, headlabel="False"] ;
5 [label="sepal width (cm) <= 3.6\ngini = 0.22\nsamples = 38\nvalue = [3, 52, 4]\nclass = versicolor", fillcolor="#52e891"] ;
4 -> 5 ;
6 [label="petal length (cm) <= 4.95\ngini = 0.13\nsamples = 35\nvalue = [0, 52, 4]\nclass = versicolor", fillcolor="#48e78b"] ;
5 -> 6 ;
7 [label="gini = 0.0\nsamples = 30\nvalue = [0, 48, 0]\nclass = versicolor", fillcolor="#39e581"] ;
6 -> 7 ;
8 [label="sepal length (cm) <= 6.95\ngini = 0.5\nsamples = 5\nvalue = [0, 4, 4]\nclass = versicolor", fillcolor="#ffffff"] ;
6 -> 8 ;
9 [label="sepal length (cm) <= 6.5\ngini = 0.49\nsamples = 4\nvalue = [0, 4, 3]\nclass = versicolor", fillcolor="#cef8e0"] ;
8 -> 9 ;
10 [label="sepal width (cm) <= 2.75\ngini = 0.48\nsamples = 3\nvalue = [0, 2, 3]\nclass = virginica", fillcolor="#d5bdf6"] ;
9 -> 10 ;
11 [label="petal width (cm) <= 1.55\ngini = 0.44\nsamples = 2\nvalue = [0, 2, 1]\nclass = versicolor", fillcolor="#9cf2c0"] ;
10 -> 11 ;
12 [label="gini = 0.0\nsamples = 1\nvalue = [0, 0, 1]\nclass = virginica", fillcolor="#8139e5"] ;
11 -> 12 ;
13 [label="gini = 0.0\nsamples = 1\nvalue = [0, 2, 0]\nclass = versicolor", fillcolor="#39e581"] ;
11 -> 13 ;
14 [label="gini = 0.0\nsamples = 1\nvalue = [0, 0, 2]\nclass = virginica", fillcolor="#8139e5"] ;
10 -> 14 ;
15 [label="gini = 0.0\nsamples = 1\nvalue = [0, 2, 0]\nclass = versicolor", fillcolor="#39e581"] ;
9 -> 15 ;
16 [label="gini = 0.0\nsamples = 1\nvalue = [0, 0, 1]\nclass = virginica", fillcolor="#8139e5"] ;
8 -> 16 ;
17 [label="gini = 0.0\nsamples = 3\nvalue = [3, 0, 0]\nclass = setosa", fillcolor="#e58139"] ;
5 -> 17 ;
18 [label="gini = 0.0\nsamples = 25\nvalue = [0, 0, 37]\nclass = virginica", fillcolor="#8139e5"] ;
4 -> 18 ;
}